svm_type c_svc
kernel_type linear
nr_class 3
total_sv 8
rho -11.968213244817349 -2.1658187438854264 -0.8077222285997679
label 1 3 2
probA -0.022452335000918342 -1.8557752171763668 -0.239412215551716
probB -0.5389563259875547 -0.2985025757867158 0.7616591370177724
nr_sv 4 2 2
SV
3.8075686334662375 0.0 0:0.38918495178222656 1:1.3333333730697632 2:3.6666667461395264 3:3.0 4:0.4578154385089874 
0.0 0.13424950107010947 0:0.41989603638648987 1:2.0 2:13.333333015441895 3:2.0 4:0.40000152587890625 
0.0 0.1622217825982071 0:0.3822762966156006 1:1.6666666269302368 2:5.0 3:2.0 4:0.22451144456863403 
2.393276273971735 0.0 0:0.43664705753326416 1:2.0 2:14.0 3:2.0 4:0.3622364401817322 
-6.200844907437975 0.30874703805173226 0:0.3793572187423706 1:2.0 2:7.666666507720947 3:3.0 4:0.49278831481933594 
-0.0 0.005358279692051766 0:5.150026798248291 1:26.66666603088379 2:5.333333492279053 3:35.0 4:6.09550142288208 
-0.29647128366831654 -0.06980418606722397 0:1.0109925270080566 1:4.333333492279053 2:8.666666984558105 3:2.0 4:0.4793758690357208 
-0.0 -0.24430113167655998 0:1.0241984128952026 1:4.333333492279053 2:7.333333492279053 3:2.0 4:0.5333335995674133 
